Language model created by QuickLM on Fri Apr  7 17:44:38 EDT 2017
Copyright (c) 1996-2010 Carnegie Mellon University and Alexander I. Rudnicky

The model is in standard ARPA format, designed by Doug Paul while he was at MITRE.

The code that was used to produce this language model is available in Open Source.
Please visit http://www.speech.cs.cmu.edu/tools/ for more information

The (fixed) discount mass is 0.5. The backoffs are computed using the ratio method.
This model based on a corpus of 47 sentences and 48 words

\data\
ngram 1=48
ngram 2=104
ngram 3=61

\1-grams:
-0.8303 </s> -0.3010
-0.8303 <s> -0.2051
-2.5024 ALTIMETER -0.2316
-2.5024 ALTITUDE -0.2316
-2.5024 BEACON -0.2316
-2.5024 COM -0.2316
-2.5024 COURSE -0.2316
-2.0253 DECIMAL -0.2218
-2.5024 DOWN -0.2316
-2.5024 EIGHT -0.2316
-2.5024 ELEVEN -0.2316
-2.5024 FIFTEEN -0.2316
-2.2014 FIVE -0.2316
-2.5024 FLAPS -0.2316
-2.5024 FLIGHT -0.2316
-2.5024 FOUR -0.2316
-2.5024 FOURTY -0.2316
-2.5024 GEAR -0.2316
-2.5024 HEADING -0.2316
-2.5024 LANDING -0.2316
-2.5024 LEVEL -0.2316
-2.5024 LIGHT -0.2316
-2.5024 LIGHTS -0.2316
-2.5024 LNAV -0.2316
-2.5024 LOGO -0.2316
-2.0253 NAV -0.2218
-2.5024 NAVIGATION -0.2316
-2.2014 NINE -0.2267
-2.5024 OFF -0.2316
-2.5024 ON -0.2316
-1.7243 ONE -0.2102
-2.5024 POSITION -0.2316
-2.0253 SET -0.2267
-2.5024 SEVEN -0.2316
-2.5024 SIX -0.2316
-2.5024 SPEED -0.2316
-2.5024 STROBE -0.2316
-2.5024 TAXI -0.2316
-2.5024 TEN -0.2316
-2.5024 THIRTY -0.2316
-2.0253 THREE -0.2235
-2.2014 TO -0.2928
-2.5024 TWENTY -0.2316
-2.0253 TWO -0.2235
-2.5024 UP -0.2316
-2.5024 VNAV -0.2316
-2.5024 WING -0.2316
-2.2014 ZERO -0.2316

\2-grams:
-1.9731 <s> ALTIMETER 0.0000
-1.9731 <s> ALTITUDE 0.0000
-1.9731 <s> BEACON 0.0000
-1.9731 <s> COM 0.0000
-1.9731 <s> COURSE 0.0000
-1.9731 <s> DECIMAL -0.2218
-1.9731 <s> DOWN 0.0000
-1.9731 <s> EIGHT 0.0000
-1.9731 <s> ELEVEN 0.0000
-1.9731 <s> FIFTEEN 0.0000
-1.9731 <s> FIVE 0.0000
-1.9731 <s> FLAPS 0.0000
-1.9731 <s> FLIGHT 0.0000
-1.9731 <s> FOUR 0.0000
-1.9731 <s> FOURTY 0.0000
-1.9731 <s> GEAR 0.0000
-1.9731 <s> HEADING 0.0000
-1.9731 <s> LANDING 0.0000
-1.9731 <s> LEVEL 0.0000
-1.9731 <s> LIGHT 0.0000
-1.9731 <s> LIGHTS 0.0000
-1.9731 <s> LNAV 0.0000
-1.9731 <s> LOGO 0.0000
-1.9731 <s> NAV -0.2218
-1.9731 <s> NAVIGATION 0.0000
-1.9731 <s> NINE -0.1761
-1.9731 <s> OFF 0.0000
-1.9731 <s> ON 0.0000
-1.9731 <s> ONE -0.2632
-1.9731 <s> POSITION 0.0000
-1.4960 <s> SET 0.0000
-1.9731 <s> SEVEN 0.0000
-1.9731 <s> SIX 0.0000
-1.9731 <s> SPEED 0.0000
-1.9731 <s> STROBE 0.0000
-1.9731 <s> TAXI 0.0000
-1.9731 <s> TEN 0.0000
-1.9731 <s> THIRTY 0.0000
-1.9731 <s> THREE -0.2218
-1.9731 <s> TWENTY 0.0000
-1.9731 <s> TWO -0.2218
-1.9731 <s> UP 0.0000
-1.9731 <s> VNAV 0.0000
-1.9731 <s> WING 0.0000
-1.9731 <s> ZERO 0.0000
-0.3010 ALTIMETER </s> -0.3010
-0.3010 ALTITUDE </s> -0.3010
-0.3010 BEACON </s> -0.3010
-0.3010 COM </s> -0.3010
-0.3010 COURSE </s> -0.3010
-0.7782 DECIMAL </s> -0.3010
-0.7782 DECIMAL THREE -0.2218
-0.7782 DECIMAL TWO -0.2218
-0.3010 DOWN </s> -0.3010
-0.3010 EIGHT </s> -0.3010
-0.3010 ELEVEN </s> -0.3010
-0.3010 FIFTEEN </s> -0.3010
-0.3010 FIVE </s> -0.3010
-0.3010 FLAPS </s> -0.3010
-0.3010 FLIGHT </s> -0.3010
-0.3010 FOUR </s> -0.3010
-0.3010 FOURTY </s> -0.3010
-0.3010 GEAR </s> -0.3010
-0.3010 HEADING </s> -0.3010
-0.3010 LANDING </s> -0.3010
-0.3010 LEVEL </s> -0.3010
-0.3010 LIGHT </s> -0.3010
-0.3010 LIGHTS </s> -0.3010
-0.3010 LNAV </s> -0.3010
-0.3010 LOGO </s> -0.3010
-0.7782 NAV </s> -0.3010
-0.4771 NAV ONE -0.2218
-0.3010 NAVIGATION </s> -0.3010
-0.6021 NINE </s> -0.3010
-0.6021 NINE DECIMAL -0.2218
-0.3010 OFF </s> -0.3010
-0.3010 ON </s> -0.3010
-1.0792 ONE </s> -0.3010
-1.0792 ONE NINE -0.1761
-1.0792 ONE ONE -0.2632
-0.7782 ONE TO 0.0000
-1.0792 ONE TWO -0.2218
-0.3010 POSITION </s> -0.3010
-0.7782 SET </s> -0.3010
-0.4771 SET NAV -0.1249
-0.3010 SEVEN </s> -0.3010
-0.3010 SIX </s> -0.3010
-0.3010 SPEED </s> -0.3010
-0.3010 STROBE </s> -0.3010
-0.3010 TAXI </s> -0.3010
-0.3010 TEN </s> -0.3010
-0.3010 THIRTY </s> -0.3010
-0.7782 THREE </s> -0.3010
-0.7782 THREE DECIMAL -0.2218
-0.7782 THREE ZERO 0.0000
-0.3010 TO ONE -0.2218
-0.3010 TWENTY </s> -0.3010
-0.7782 TWO </s> -0.3010
-0.7782 TWO FIVE 0.0000
-0.7782 TWO THREE -0.2218
-0.3010 UP </s> -0.3010
-0.3010 VNAV </s> -0.3010
-0.3010 WING </s> -0.3010
-0.3010 ZERO </s> -0.3010

\3-grams:
-0.3010 <s> ALTIMETER </s>
-0.3010 <s> ALTITUDE </s>
-0.3010 <s> BEACON </s>
-0.3010 <s> COM </s>
-0.3010 <s> COURSE </s>
-0.3010 <s> DECIMAL </s>
-0.3010 <s> DOWN </s>
-0.3010 <s> EIGHT </s>
-0.3010 <s> ELEVEN </s>
-0.3010 <s> FIFTEEN </s>
-0.3010 <s> FIVE </s>
-0.3010 <s> FLAPS </s>
-0.3010 <s> FLIGHT </s>
-0.3010 <s> FOUR </s>
-0.3010 <s> FOURTY </s>
-0.3010 <s> GEAR </s>
-0.3010 <s> HEADING </s>
-0.3010 <s> LANDING </s>
-0.3010 <s> LEVEL </s>
-0.3010 <s> LIGHT </s>
-0.3010 <s> LIGHTS </s>
-0.3010 <s> LNAV </s>
-0.3010 <s> LOGO </s>
-0.3010 <s> NAV </s>
-0.3010 <s> NAVIGATION </s>
-0.3010 <s> NINE </s>
-0.3010 <s> OFF </s>
-0.3010 <s> ON </s>
-0.3010 <s> ONE </s>
-0.3010 <s> POSITION </s>
-0.7782 <s> SET </s>
-0.4771 <s> SET NAV
-0.3010 <s> SEVEN </s>
-0.3010 <s> SIX </s>
-0.3010 <s> SPEED </s>
-0.3010 <s> STROBE </s>
-0.3010 <s> TAXI </s>
-0.3010 <s> TEN </s>
-0.3010 <s> THIRTY </s>
-0.3010 <s> THREE </s>
-0.3010 <s> TWENTY </s>
-0.3010 <s> TWO </s>
-0.3010 <s> UP </s>
-0.3010 <s> VNAV </s>
-0.3010 <s> WING </s>
-0.3010 <s> ZERO </s>
-0.3010 DECIMAL THREE ZERO
-0.3010 DECIMAL TWO FIVE
-0.3010 NAV ONE TO
-0.3010 NINE DECIMAL THREE
-0.3010 ONE NINE DECIMAL
-0.3010 ONE ONE NINE
-0.3010 ONE TO ONE
-0.3010 ONE TWO THREE
-0.3010 SET NAV ONE
-0.3010 THREE DECIMAL TWO
-0.3010 THREE ZERO </s>
-0.6021 TO ONE ONE
-0.6021 TO ONE TWO
-0.3010 TWO FIVE </s>
-0.3010 TWO THREE DECIMAL

\end\
