Language model created by QuickLM on Thu Apr  6 17:10:52 EDT 2017
Copyright (c) 1996-2010 Carnegie Mellon University and Alexander I. Rudnicky

The model is in standard ARPA format, designed by Doug Paul while he was at MITRE.

The code that was used to produce this language model is available in Open Source.
Please visit http://www.speech.cs.cmu.edu/tools/ for more information

The (fixed) discount mass is 0.5. The backoffs are computed using the ratio method.
This model based on a corpus of 42 sentences and 44 words

\data\
ngram 1=44
ngram 2=84
ngram 3=42

\1-grams:
-0.7782 </s> -0.3010
-0.7782 <s> -0.2218
-2.4014 ALTIMETER -0.2218
-2.4014 ALTITUDE -0.2218
-2.4014 BEACON -0.2218
-2.4014 COURSE -0.2218
-2.4014 DOWN -0.2218
-2.4014 EIGHT -0.2218
-2.4014 ELEVEN -0.2218
-2.4014 FIFTEEN -0.2218
-2.4014 FIVE -0.2218
-2.4014 FLAPS -0.2218
-2.4014 FLIGHT -0.2218
-2.4014 FOUR -0.2218
-2.4014 FOURTY -0.2218
-2.4014 GEAR -0.2218
-2.4014 HEADING -0.2218
-2.4014 LANDING -0.2218
-2.4014 LEVEL -0.2218
-2.4014 LIGHT -0.2218
-2.4014 LIGHTS -0.2218
-2.4014 LNAV -0.2218
-2.4014 LOGO -0.2218
-2.4014 NAVIGATION -0.2218
-2.4014 NINE -0.2218
-2.4014 OFF -0.2218
-2.4014 ON -0.2218
-2.4014 ONE -0.2218
-2.4014 POSITION -0.2218
-2.4014 SET -0.2218
-2.4014 SEVEN -0.2218
-2.4014 SIX -0.2218
-2.4014 SPEED -0.2218
-2.4014 STROBE -0.2218
-2.4014 TAXI -0.2218
-2.4014 TEN -0.2218
-2.4014 THIRTY -0.2218
-2.4014 THREE -0.2218
-2.4014 TWENTY -0.2218
-2.4014 TWO -0.2218
-2.4014 UP -0.2218
-2.4014 VNAV -0.2218
-2.4014 WING -0.2218
-2.4014 ZERO -0.2218

\2-grams:
-1.9243 <s> ALTIMETER 0.0000
-1.9243 <s> ALTITUDE 0.0000
-1.9243 <s> BEACON 0.0000
-1.9243 <s> COURSE 0.0000
-1.9243 <s> DOWN 0.0000
-1.9243 <s> EIGHT 0.0000
-1.9243 <s> ELEVEN 0.0000
-1.9243 <s> FIFTEEN 0.0000
-1.9243 <s> FIVE 0.0000
-1.9243 <s> FLAPS 0.0000
-1.9243 <s> FLIGHT 0.0000
-1.9243 <s> FOUR 0.0000
-1.9243 <s> FOURTY 0.0000
-1.9243 <s> GEAR 0.0000
-1.9243 <s> HEADING 0.0000
-1.9243 <s> LANDING 0.0000
-1.9243 <s> LEVEL 0.0000
-1.9243 <s> LIGHT 0.0000
-1.9243 <s> LIGHTS 0.0000
-1.9243 <s> LNAV 0.0000
-1.9243 <s> LOGO 0.0000
-1.9243 <s> NAVIGATION 0.0000
-1.9243 <s> NINE 0.0000
-1.9243 <s> OFF 0.0000
-1.9243 <s> ON 0.0000
-1.9243 <s> ONE 0.0000
-1.9243 <s> POSITION 0.0000
-1.9243 <s> SET 0.0000
-1.9243 <s> SEVEN 0.0000
-1.9243 <s> SIX 0.0000
-1.9243 <s> SPEED 0.0000
-1.9243 <s> STROBE 0.0000
-1.9243 <s> TAXI 0.0000
-1.9243 <s> TEN 0.0000
-1.9243 <s> THIRTY 0.0000
-1.9243 <s> THREE 0.0000
-1.9243 <s> TWENTY 0.0000
-1.9243 <s> TWO 0.0000
-1.9243 <s> UP 0.0000
-1.9243 <s> VNAV 0.0000
-1.9243 <s> WING 0.0000
-1.9243 <s> ZERO 0.0000
-0.3010 ALTIMETER </s> -0.3010
-0.3010 ALTITUDE </s> -0.3010
-0.3010 BEACON </s> -0.3010
-0.3010 COURSE </s> -0.3010
-0.3010 DOWN </s> -0.3010
-0.3010 EIGHT </s> -0.3010
-0.3010 ELEVEN </s> -0.3010
-0.3010 FIFTEEN </s> -0.3010
-0.3010 FIVE </s> -0.3010
-0.3010 FLAPS </s> -0.3010
-0.3010 FLIGHT </s> -0.3010
-0.3010 FOUR </s> -0.3010
-0.3010 FOURTY </s> -0.3010
-0.3010 GEAR </s> -0.3010
-0.3010 HEADING </s> -0.3010
-0.3010 LANDING </s> -0.3010
-0.3010 LEVEL </s> -0.3010
-0.3010 LIGHT </s> -0.3010
-0.3010 LIGHTS </s> -0.3010
-0.3010 LNAV </s> -0.3010
-0.3010 LOGO </s> -0.3010
-0.3010 NAVIGATION </s> -0.3010
-0.3010 NINE </s> -0.3010
-0.3010 OFF </s> -0.3010
-0.3010 ON </s> -0.3010
-0.3010 ONE </s> -0.3010
-0.3010 POSITION </s> -0.3010
-0.3010 SET </s> -0.3010
-0.3010 SEVEN </s> -0.3010
-0.3010 SIX </s> -0.3010
-0.3010 SPEED </s> -0.3010
-0.3010 STROBE </s> -0.3010
-0.3010 TAXI </s> -0.3010
-0.3010 TEN </s> -0.3010
-0.3010 THIRTY </s> -0.3010
-0.3010 THREE </s> -0.3010
-0.3010 TWENTY </s> -0.3010
-0.3010 TWO </s> -0.3010
-0.3010 UP </s> -0.3010
-0.3010 VNAV </s> -0.3010
-0.3010 WING </s> -0.3010
-0.3010 ZERO </s> -0.3010

\3-grams:
-0.3010 <s> ALTIMETER </s>
-0.3010 <s> ALTITUDE </s>
-0.3010 <s> BEACON </s>
-0.3010 <s> COURSE </s>
-0.3010 <s> DOWN </s>
-0.3010 <s> EIGHT </s>
-0.3010 <s> ELEVEN </s>
-0.3010 <s> FIFTEEN </s>
-0.3010 <s> FIVE </s>
-0.3010 <s> FLAPS </s>
-0.3010 <s> FLIGHT </s>
-0.3010 <s> FOUR </s>
-0.3010 <s> FOURTY </s>
-0.3010 <s> GEAR </s>
-0.3010 <s> HEADING </s>
-0.3010 <s> LANDING </s>
-0.3010 <s> LEVEL </s>
-0.3010 <s> LIGHT </s>
-0.3010 <s> LIGHTS </s>
-0.3010 <s> LNAV </s>
-0.3010 <s> LOGO </s>
-0.3010 <s> NAVIGATION </s>
-0.3010 <s> NINE </s>
-0.3010 <s> OFF </s>
-0.3010 <s> ON </s>
-0.3010 <s> ONE </s>
-0.3010 <s> POSITION </s>
-0.3010 <s> SET </s>
-0.3010 <s> SEVEN </s>
-0.3010 <s> SIX </s>
-0.3010 <s> SPEED </s>
-0.3010 <s> STROBE </s>
-0.3010 <s> TAXI </s>
-0.3010 <s> TEN </s>
-0.3010 <s> THIRTY </s>
-0.3010 <s> THREE </s>
-0.3010 <s> TWENTY </s>
-0.3010 <s> TWO </s>
-0.3010 <s> UP </s>
-0.3010 <s> VNAV </s>
-0.3010 <s> WING </s>
-0.3010 <s> ZERO </s>

\end\
